<?xml version="1.0"?>
<opencv_storage>
<my_svm type_id="opencv-ml-svm">
  <svm_type>C_SVC</svm_type>
  <kernel><type>RBF</type>
    <gamma>1.</gamma></kernel>
  <C>1.</C>
  <term_criteria><epsilon>2.2204460492503131e-016</epsilon>
    <iterations>100</iterations></term_criteria>
  <var_all>5</var_all>
  <var_count>5</var_count>
  <class_count>4</class_count>
  <class_labels type_id="opencv-matrix">
    <rows>1</rows>
    <cols>4</cols>
    <dt>i</dt>
    <data>
      0 1 2 3</data></class_labels>
  <sv_total>32</sv_total>
  <support_vectors>
    <_>
      2.49146760e-001 8.35454941e-001 6.91211283e-001 4.36060578e-001
      1.47293648e-003</_>
    <_>
      2.19697297e-001 2.80308008e-001 9.35414255e-001 7.92472541e-001
      2.46190950e-002</_>
    <_>
      3.14159125e-001 1.11382306e+000 4.96236175e-001 2.10141838e-001
      4.44047758e-003</_>
    <_>
      2.70629644e-001 4.33614880e-001 4.82549608e-001 1.95243180e-001
      2.07317481e-003</_>
    <_>
      2.05780670e-001 1.85837582e-001 1.82429814e+000 3.03719091e+000
      3.71246600e+000</_>
    <_>
      2.72206277e-001 1.23789918e+000 6.84870124e-001 3.95676762e-001
      3.27428197e-003</_>
    <_>
      3.54819000e-001 8.36730421e-001 5.73291481e-001 2.79525280e-001
      4.07001516e-003</_>
    <_>
      2.45289817e-001 4.82975990e-002 4.81930971e-001 1.95744559e-001
      1.51447824e-003</_>
    <_>
      2.41459653e-001 3.89993936e-001 4.63863403e-001 1.84779018e-001
      1.87984074e-003</_>
    <_>
      1.69893891e-001 9.70237315e-001 6.60597801e-001 4.07254964e-001
      3.41123268e-005</_>
    <_>
      2.21575007e-001 6.92931652e-001 6.81853592e-001 4.25391942e-001
      2.67540454e-003</_>
    <_>
      2.59261370e-001 1.65554595e+000 6.59231424e-001 3.93173099e-001
      3.30634322e-003</_>
    <_>
      1.72077909e-001 1.20398366e+000 6.49329960e-001 3.91355634e-001
      5.29369945e-003</_>
    <_>
      2.40463153e-001 8.08814049e-001 5.90401769e-001 3.15973967e-001
      5.25471522e-004</_>
    <_>
      1.97166666e-001 1.25665569e+000 5.84512889e-001 3.11055630e-001
      6.20194245e-003</_>
    <_>
      4.88333273e+000 1.41188622e+000 7.39687920e-001 5.07313907e-001
      3.80511433e-002</_>
    <_>
      2.19692111e-001 3.60951781e-001 4.61408764e-001 1.84934303e-001
      3.56389472e-004</_>
    <_>
      2.42509276e-001 1.56675565e+000 4.58741963e-001 1.79767415e-001
      6.20886730e-003</_>
    <_>
      2.31710032e-001 2.44846916e+000 7.20405102e-001 4.72361356e-001
      3.65871675e-002</_>
    <_>
      2.44717911e-001 1.50086355e+000 1.01968610e+000 9.40080523e-001
      6.28015622e-002</_>
    <_>
      1.13409960e+000 2.45417297e-001 6.21755064e-001 3.56240094e-001
      1.69163418e-003</_>
    <_>
      2.91120082e-001 1.38100266e+000 5.36396265e-001 2.41237849e-001
      9.20703227e-004</_>
    <_>
      1.36405528e+000 1.35727763e-001 5.48632801e-001 3.03346124e-002
      1.61280841e-001</_>
    <_>
      2.29915559e-001 1.58186257e+000 5.11211693e-001 2.29505837e-001
      2.62922747e-003</_>
    <_>
      2.42191270e-001 9.36779737e-001 6.40404284e-001 3.61633211e-001
      5.01574669e-003</_>
    <_>
      9.53658581e+000 1.87767994e+000 1.04150546e+000 1.05110228e+000
      1.93283945e-001</_>
    <_>
      1.92350447e-001 7.78715253e-001 9.01742220e-001 7.28244543e-001
      2.14019388e-001</_>
    <_>
      9.48780441e+000 1.80365157e+000 9.00955915e-001 7.81719327e-001
      2.18351912e-002</_>
    <_>
      2.14575320e-001 1.15140891e+000 9.52758729e-001 8.07400644e-001
      1.19613767e-001</_>
    <_>
      1.77767202e-001 1.44846511e+000 1.17693591e+000 1.27667391e+000
      4.52598989e-001</_>
    <_>
      2.19423980e-001 1.21373355e+000 1.03533316e+000 9.53382909e-001
      2.22150564e-001</_>
    <_>
      1.75575092e-001 2.51619369e-001 1.39754534e+000 1.76272786e+000
      5.53805172e-001</_></support_vectors>
  <decision_functions>
    <_>
      <sv_count>17</sv_count>
      <rho>1.7545012413399982e-001</rho>
      <alpha>
        1. 1. 1. 1. 1. 1. 1. 1. -1. -1. -1. -7.2730360088110968e-001 -1.
        -1. -4.4814652211769712e-001 -8.2454987700119331e-001 -1.</alpha>
      <index>
        0 1 2 3 4 5 6 7 8 9 10 11 12 13 14 15 16</index></_>
    <_>
      <sv_count>15</sv_count>
      <rho>3.5768955428555943e-001</rho>
      <alpha>
        1. 6.6465068828354867e-001 1. 1. 1. 1. 7.5747648717021432e-001
        -1. -1. -1. -1. -3.9816500213973494e-001
        -3.8165172759958749e-001 -1. -6.4231044571444063e-001</alpha>
      <index>
        0 1 2 4 5 6 7 17 19 20 21 22 23 24 25</index></_>
    <_>
      <sv_count>11</sv_count>
      <rho>3.9493817358467791e-002</rho>
      <alpha>
        1. 1. 3.3731260588952328e-001 1. 1. 3.0167169976740521e-001 -1.
        -9.6050618264153231e-001 -1. -8.2282878143647653e-001
        -8.5564934157891936e-001</alpha>
      <index>
        0 1 2 4 5 7 26 27 28 30 31</index></_>
    <_>
      <sv_count>16</sv_count>
      <rho>4.1315611065093849e-001</rho>
      <alpha>
        9.7219472492850367e-001 1. 1. 1. 1. 1. 1. -1.
        -2.2871803076020253e-001 -1. -1. -1. -1.5663280460854759e-001
        -1. -1. -5.8684388955975342e-001</alpha>
      <index>
        8 9 11 12 13 14 15 17 18 19 20 21 22 23 24 25</index></_>
    <_>
      <sv_count>11</sv_count>
      <rho>1.6864541472150760e-002</rho>
      <alpha>
        1. 1. 1. 4.5124919565875399e-001 1. 1.7808693781865420e-001 -1.
        -9.8313545900834176e-001 -1. -1. -6.4620067446906648e-001</alpha>
      <index>
        9 10 11 12 15 16 26 27 28 30 31</index></_>
    <_>
      <sv_count>13</sv_count>
      <rho>-2.1323131408882753e-001</rho>
      <alpha>
        5.8139713963490514e-001 1. 6.4373210359569089e-001
        7.2067051682666927e-001 2.3463077261641768e-001 1. 1. -1. -1.
        -1. -5.7180605421088027e-001 -7.9599948539667931e-001
        -8.1262499306612346e-001</alpha>
      <index>
        18 19 20 21 22 24 25 26 27 28 29 30 31</index></_></decision_functions></my_svm>
</opencv_storage>
